digraph Tree {
node [shape=box] ;
0 [label="Dvl_O <= 0.5\ngini = 0.5136\nsamples = 569\nvalue = [81, 21, 382, 21, 64]\nclass = Df"] ;
1 [label="OtnWLkd <= 0.3958\ngini = 0.3101\nsamples = 467\nvalue = [0, 0, 382, 21, 64]\nclass = Df"] ;
0 -> 1 [labeldistance=2.5, labelangle=45, headlabel="True"] ;
2 [label="L1p2l <= 9.77\ngini = 0.0959\nsamples = 398\nvalue = [0, 0, 378, 18, 2]\nclass = Df"] ;
1 -> 2 ;
3 [label="Dnvs_ORe <= 0.5\ngini = 0.4444\nsamples = 18\nvalue = [0, 0, 6, 12, 0]\nclass = Dg"] ;
2 -> 3 ;
4 [label="gini = 0.0\nsamples = 5\nvalue = [0, 0, 5, 0, 0]\nclass = Df"] ;
3 -> 4 ;
5 [label="W2p4l <= 2.79\ngini = 0.142\nsamples = 13\nvalue = [0, 0, 1, 12, 0]\nclass = Dg"] ;
3 -> 5 ;
6 [label="gini = 0.0\nsamples = 1\nvalue = [0, 0, 1, 0, 0]\nclass = Df"] ;
5 -> 6 ;
7 [label="gini = 0.0\nsamples = 12\nvalue = [0, 0, 0, 12, 0]\nclass = Dg"] ;
5 -> 7 ;
8 [label="Dnns_G <= 0.5\ngini = 0.0414\nsamples = 380\nvalue = [0, 0, 372, 6, 2]\nclass = Df"] ;
2 -> 8 ;
9 [label="L1p1l <= 10.58\ngini = 0.0312\nsamples = 378\nvalue = [0, 0, 372, 6, 0]\nclass = Df"] ;
8 -> 9 ;
10 [label="Dnvs_ORe <= 0.5\ngini = 0.375\nsamples = 16\nvalue = [0, 0, 12, 4, 0]\nclass = Df"] ;
9 -> 10 ;
11 [label="gini = 0.0\nsamples = 12\nvalue = [0, 0, 12, 0, 0]\nclass = Df"] ;
10 -> 11 ;
12 [label="gini = 0.0\nsamples = 4\nvalue = [0, 0, 0, 4, 0]\nclass = Dg"] ;
10 -> 12 ;
13 [label="L1p2l <= 11.38\ngini = 0.011\nsamples = 362\nvalue = [0, 0, 360, 2, 0]\nclass = Df"] ;
9 -> 13 ;
14 [label="L2p4l <= 11.74\ngini = 0.1653\nsamples = 22\nvalue = [0, 0, 20, 2, 0]\nclass = Df"] ;
13 -> 14 ;
15 [label="gini = 0.0\nsamples = 20\nvalue = [0, 0, 20, 0, 0]\nclass = Df"] ;
14 -> 15 ;
16 [label="gini = 0.0\nsamples = 2\nvalue = [0, 0, 0, 2, 0]\nclass = Dg"] ;
14 -> 16 ;
17 [label="gini = 0.0\nsamples = 340\nvalue = [0, 0, 340, 0, 0]\nclass = Df"] ;
13 -> 17 ;
18 [label="gini = 0.0\nsamples = 2\nvalue = [0, 0, 0, 0, 2]\nclass = Dm"] ;
8 -> 18 ;
19 [label="Dvvs_ORe <= 0.5\ngini = 0.1874\nsamples = 69\nvalue = [0, 0, 4, 3, 62]\nclass = Dm"] ;
1 -> 19 ;
20 [label="Wvs <= 4.0\ngini = 0.0312\nsamples = 63\nvalue = [0, 0, 1, 0, 62]\nclass = Dm"] ;
19 -> 20 ;
21 [label="gini = 0.0\nsamples = 62\nvalue = [0, 0, 0, 0, 62]\nclass = Dm"] ;
20 -> 21 ;
22 [label="gini = 0.0\nsamples = 1\nvalue = [0, 0, 1, 0, 0]\nclass = Df"] ;
20 -> 22 ;
23 [label="Dp_ORe <= 0.5\ngini = 0.5\nsamples = 6\nvalue = [0, 0, 3, 3, 0]\nclass = Df"] ;
19 -> 23 ;
24 [label="gini = 0.0\nsamples = 3\nvalue = [0, 0, 3, 0, 0]\nclass = Df"] ;
23 -> 24 ;
25 [label="gini = 0.0\nsamples = 3\nvalue = [0, 0, 0, 3, 0]\nclass = Dg"] ;
23 -> 25 ;
26 [label="OtnWLkd <= 0.2966\ngini = 0.327\nsamples = 102\nvalue = [81, 21, 0, 0, 0]\nclass = Dd"] ;
0 -> 26 [labeldistance=2.5, labelangle=-45, headlabel="False"] ;
27 [label="S2p4l <= 0.5\ngini = 0.1653\nsamples = 22\nvalue = [2, 20, 0, 0, 0]\nclass = Ddvfl"] ;
26 -> 27 ;
28 [label="gini = 0.0\nsamples = 20\nvalue = [0, 20, 0, 0, 0]\nclass = Ddvfl"] ;
27 -> 28 ;
29 [label="gini = 0.0\nsamples = 2\nvalue = [2, 0, 0, 0, 0]\nclass = Dd"] ;
27 -> 29 ;
30 [label="Dc_O <= 0.5\ngini = 0.0247\nsamples = 80\nvalue = [79, 1, 0, 0, 0]\nclass = Dd"] ;
26 -> 30 ;
31 [label="gini = 0.0\nsamples = 79\nvalue = [79, 0, 0, 0, 0]\nclass = Dd"] ;
30 -> 31 ;
32 [label="gini = 0.0\nsamples = 1\nvalue = [0, 1, 0, 0, 0]\nclass = Ddvfl"] ;
30 -> 32 ;
}